6.604536211759836
-1.5270559574355584
-0.06575650325061386
0.7603559880282507
3.079952656982062
1.9520540676992035
-2.0191158777059326
0.6664874504294293
2.3848455294885764
-0.7279900875009222
2.5575243228427267
-0.47778545846392645
-4.67615413927469
-3.5722588689114154
-1.1834235838700118
3.725157940067383
-1.9374379290346944
0.26891487217806687
-1.2624395313905108
3.355888158799472
-3.009016674584385
-1.6977078270917743
1.7843877425420345
0.4844926116259789
2.904064721228631
-4.911262693293615
-2.094431670415642
0.5225178016951101
1.9236279850385287
-0.4622824761184705
2.409382269288739
-0.776368606676004
1.8515357776475916
-3.5437554448435393
3.2744512409912714
3.6133284781932438
4.631095126295889
-2.7052789037298584
-1.0984040812702591
3.328615168359421
2.5440943773331033
0.3403193204907241
-8.004692032480754
-1.821636203831243
-2.1818717915069477
-1.1688547913760277
0.870575259102893
0.9056575443724716
-1.3914153316244695
0.9091646116895136
-0.18876225057947735
-0.7545245670740713
0.2629662482495023
2.0324803964989986
2.763358024630362
-4.284848792569336
-2.068842384847795
3.8040017938823922
-3.5276511933936927
-2.2761421538720668
-2.0267197161087744
0.12490415126325703
0.5374168699341267
-1.440330551302493
0.7906600290471547
1.2326016394708519
1.2709749066798097
-1.3854116088701467
-1.0905002005416415
-0.48719929480801544
0.44925448794896494
1.3592359101038203
1.8727184571382436
-1.3038768793223494
-1.1083243438556387
-0.5480539776546934
-6.507735712947943
-3.1836918634344813
3.023101659931517
-3.414137032764395
-3.6162904242550447
-5.2037538492429345
0.5954194024499679
0.3997475666137031
-3.1018574072737692
-0.3121922719765249
2.3200342785612325
4.419118145539946
1.12922365910478
-0.16559718574946775
-4.738960258223731
-5.447093819851791
-1.9390535744607944
0.23407524592731185
-2.6235807531024697
-2.217109709608678
-0.3264809182736552
-0.45926769350452334
2.1521391491209223
3.458673354087254
